Language model created by QuickLM on Thu May  3 02:45:16 EDT 2018
Copyright (c) 1996-2010 Carnegie Mellon University and Alexander I. Rudnicky

The model is in standard ARPA format, designed by Doug Paul while he was at MITRE.

The code that was used to produce this language model is available in Open Source.
Please visit http://www.speech.cs.cmu.edu/tools/ for more information

The (fixed) discount mass is 0.5. The backoffs are computed using the ratio method.
This model based on a corpus of 27 sentences and 29 words

\data\
ngram 1=29
ngram 2=54
ngram 3=27

\1-grams:
-0.7782 </s> -0.3010
-0.7782 <s> -0.2218
-2.2095 DO-YOU-HAVE-A-DREAM -0.2218
-2.2095 HOW-MANY-BEDS-ARE-THERE-IN-THE-BEDROOM -0.2218
-2.2095 HOW-MANY-CHAIRS-ARE-THERE-IN-THE-HOUSE -0.2218
-2.2095 HOW-MANY-COUNTRIES-THE-PARTICIPANTS-COME-FROM -0.2218
-2.2095 HOW-MANY-MAN-IS-STANDING -0.2218
-2.2095 HOW-MANY-TEAMS-ARE-THERE -0.2218
-2.2095 HOW-MANY-WOMAN-ARE-THERE -0.2218
-2.2095 IS-THERE-A-WOMAN -0.2218
-2.2095 JACK -0.2218
-2.2095 WHAT-COLOR-IS-THE-DEKOPON -0.2218
-2.2095 WHAT-COLOR-IS-THE-TEA -0.2218
-2.2095 WHAT-IS-NEXT-TO-THE-TEA -0.2218
-2.2095 WHAT-IS-THE-ANIMAL-DETECTED-IN-THE-BISCUIT-PACKAGE -0.2218
-2.2095 WHAT-IS-THE-DATE-TODAY -0.2218
-2.2095 WHAT-IS-THE-GAME -0.2218
-2.2095 WHAT-IS-THE-HIGHEST-MOUNTAIN-IN-JAPAN -0.2218
-2.2095 WHAT-IS-THE-NAME-OF-YOUR-TEAM -0.2218
-2.2095 WHAT-IS-THE-SMALLEST-COUNTRY-IN-THE-WORLD -0.2218
-2.2095 WHAT-IS-THE-WEATHER-TODAY -0.2218
-2.2095 WHAT-IS-YOUR-TEAM-NAME -0.2218
-2.2095 WHAT-MONTH-IS-IT-NOW -0.2218
-2.2095 WHERE-ARE-THE-CHAIRS -0.2218
-2.2095 WHERE-ARE-WE -0.2218
-2.2095 WHERE-IS-KIWI -0.2218
-2.2095 WHERE-IS-NEXT-ROBOCUP-HELD -0.2218
-2.2095 WHERE-IS-THE-TEA -0.2218
-2.2095 WHERE-IS-THIS-ROBOCUP-HELD -0.2218

\2-grams:
-1.7324 <s> DO-YOU-HAVE-A-DREAM 0.0000
-1.7324 <s> HOW-MANY-BEDS-ARE-THERE-IN-THE-BEDROOM 0.0000
-1.7324 <s> HOW-MANY-CHAIRS-ARE-THERE-IN-THE-HOUSE 0.0000
-1.7324 <s> HOW-MANY-COUNTRIES-THE-PARTICIPANTS-COME-FROM 0.0000
-1.7324 <s> HOW-MANY-MAN-IS-STANDING 0.0000
-1.7324 <s> HOW-MANY-TEAMS-ARE-THERE 0.0000
-1.7324 <s> HOW-MANY-WOMAN-ARE-THERE 0.0000
-1.7324 <s> IS-THERE-A-WOMAN 0.0000
-1.7324 <s> JACK 0.0000
-1.7324 <s> WHAT-COLOR-IS-THE-DEKOPON 0.0000
-1.7324 <s> WHAT-COLOR-IS-THE-TEA 0.0000
-1.7324 <s> WHAT-IS-NEXT-TO-THE-TEA 0.0000
-1.7324 <s> WHAT-IS-THE-ANIMAL-DETECTED-IN-THE-BISCUIT-PACKAGE 0.0000
-1.7324 <s> WHAT-IS-THE-DATE-TODAY 0.0000
-1.7324 <s> WHAT-IS-THE-GAME 0.0000
-1.7324 <s> WHAT-IS-THE-HIGHEST-MOUNTAIN-IN-JAPAN 0.0000
-1.7324 <s> WHAT-IS-THE-NAME-OF-YOUR-TEAM 0.0000
-1.7324 <s> WHAT-IS-THE-SMALLEST-COUNTRY-IN-THE-WORLD 0.0000
-1.7324 <s> WHAT-IS-THE-WEATHER-TODAY 0.0000
-1.7324 <s> WHAT-IS-YOUR-TEAM-NAME 0.0000
-1.7324 <s> WHAT-MONTH-IS-IT-NOW 0.0000
-1.7324 <s> WHERE-ARE-THE-CHAIRS 0.0000
-1.7324 <s> WHERE-ARE-WE 0.0000
-1.7324 <s> WHERE-IS-KIWI 0.0000
-1.7324 <s> WHERE-IS-NEXT-ROBOCUP-HELD 0.0000
-1.7324 <s> WHERE-IS-THE-TEA 0.0000
-1.7324 <s> WHERE-IS-THIS-ROBOCUP-HELD 0.0000
-0.3010 DO-YOU-HAVE-A-DREAM </s> -0.3010
-0.3010 HOW-MANY-BEDS-ARE-THERE-IN-THE-BEDROOM </s> -0.3010
-0.3010 HOW-MANY-CHAIRS-ARE-THERE-IN-THE-HOUSE </s> -0.3010
-0.3010 HOW-MANY-COUNTRIES-THE-PARTICIPANTS-COME-FROM </s> -0.3010
-0.3010 HOW-MANY-MAN-IS-STANDING </s> -0.3010
-0.3010 HOW-MANY-TEAMS-ARE-THERE </s> -0.3010
-0.3010 HOW-MANY-WOMAN-ARE-THERE </s> -0.3010
-0.3010 IS-THERE-A-WOMAN </s> -0.3010
-0.3010 JACK </s> -0.3010
-0.3010 WHAT-COLOR-IS-THE-DEKOPON </s> -0.3010
-0.3010 WHAT-COLOR-IS-THE-TEA </s> -0.3010
-0.3010 WHAT-IS-NEXT-TO-THE-TEA </s> -0.3010
-0.3010 WHAT-IS-THE-ANIMAL-DETECTED-IN-THE-BISCUIT-PACKAGE </s> -0.3010
-0.3010 WHAT-IS-THE-DATE-TODAY </s> -0.3010
-0.3010 WHAT-IS-THE-GAME </s> -0.3010
-0.3010 WHAT-IS-THE-HIGHEST-MOUNTAIN-IN-JAPAN </s> -0.3010
-0.3010 WHAT-IS-THE-NAME-OF-YOUR-TEAM </s> -0.3010
-0.3010 WHAT-IS-THE-SMALLEST-COUNTRY-IN-THE-WORLD </s> -0.3010
-0.3010 WHAT-IS-THE-WEATHER-TODAY </s> -0.3010
-0.3010 WHAT-IS-YOUR-TEAM-NAME </s> -0.3010
-0.3010 WHAT-MONTH-IS-IT-NOW </s> -0.3010
-0.3010 WHERE-ARE-THE-CHAIRS </s> -0.3010
-0.3010 WHERE-ARE-WE </s> -0.3010
-0.3010 WHERE-IS-KIWI </s> -0.3010
-0.3010 WHERE-IS-NEXT-ROBOCUP-HELD </s> -0.3010
-0.3010 WHERE-IS-THE-TEA </s> -0.3010
-0.3010 WHERE-IS-THIS-ROBOCUP-HELD </s> -0.3010

\3-grams:
-0.3010 <s> DO-YOU-HAVE-A-DREAM </s>
-0.3010 <s> HOW-MANY-BEDS-ARE-THERE-IN-THE-BEDROOM </s>
-0.3010 <s> HOW-MANY-CHAIRS-ARE-THERE-IN-THE-HOUSE </s>
-0.3010 <s> HOW-MANY-COUNTRIES-THE-PARTICIPANTS-COME-FROM </s>
-0.3010 <s> HOW-MANY-MAN-IS-STANDING </s>
-0.3010 <s> HOW-MANY-TEAMS-ARE-THERE </s>
-0.3010 <s> HOW-MANY-WOMAN-ARE-THERE </s>
-0.3010 <s> IS-THERE-A-WOMAN </s>
-0.3010 <s> JACK </s>
-0.3010 <s> WHAT-COLOR-IS-THE-DEKOPON </s>
-0.3010 <s> WHAT-COLOR-IS-THE-TEA </s>
-0.3010 <s> WHAT-IS-NEXT-TO-THE-TEA </s>
-0.3010 <s> WHAT-IS-THE-ANIMAL-DETECTED-IN-THE-BISCUIT-PACKAGE </s>
-0.3010 <s> WHAT-IS-THE-DATE-TODAY </s>
-0.3010 <s> WHAT-IS-THE-GAME </s>
-0.3010 <s> WHAT-IS-THE-HIGHEST-MOUNTAIN-IN-JAPAN </s>
-0.3010 <s> WHAT-IS-THE-NAME-OF-YOUR-TEAM </s>
-0.3010 <s> WHAT-IS-THE-SMALLEST-COUNTRY-IN-THE-WORLD </s>
-0.3010 <s> WHAT-IS-THE-WEATHER-TODAY </s>
-0.3010 <s> WHAT-IS-YOUR-TEAM-NAME </s>
-0.3010 <s> WHAT-MONTH-IS-IT-NOW </s>
-0.3010 <s> WHERE-ARE-THE-CHAIRS </s>
-0.3010 <s> WHERE-ARE-WE </s>
-0.3010 <s> WHERE-IS-KIWI </s>
-0.3010 <s> WHERE-IS-NEXT-ROBOCUP-HELD </s>
-0.3010 <s> WHERE-IS-THE-TEA </s>
-0.3010 <s> WHERE-IS-THIS-ROBOCUP-HELD </s>

\end\
