Language model created by QuickLM on Thu May  3 21:34:38 EDT 2018
Copyright (c) 1996-2010 Carnegie Mellon University and Alexander I. Rudnicky

The model is in standard ARPA format, designed by Doug Paul while he was at MITRE.

The code that was used to produce this language model is available in Open Source.
Please visit http://www.speech.cs.cmu.edu/tools/ for more information

The (fixed) discount mass is 0.5. The backoffs are computed using the ratio method.
This model based on a corpus of 62 sentences and 63 words

\data\
ngram 1=63
ngram 2=122
ngram 3=61

\1-grams:
-0.7782 </s> -0.3010
-0.7782 <s> -0.2218
-2.5705 APPLE -0.2218
-2.5705 BEDROOM -0.2218
-2.5705 BEER -0.2218
-2.5705 BOOK-SHELF -0.2218
-2.5705 BOWL -0.2218
-2.5705 BREAD -0.2218
-2.5705 CANDY -0.2218
-2.5705 CHAIR -0.2218
-2.5705 CHEWING-GUM -0.2218
-2.5705 CHIPS -0.2218
-2.5705 CHOPSTICKS -0.2218
-2.5705 COLA -0.2218
-2.5705 CUP-STAR -0.2218
-2.5705 CURRY -0.2218
-2.5705 DESK -0.2218
-2.5705 DINING-ROOM -0.2218
-2.5705 EMOLLIENT-CREAM -0.2218
-2.5705 FOLLOW-ME -0.2218
-2.5705 FORK -0.2218
-2.5705 FRUIT -0.2218
-2.5705 GREEN-TEA -0.2218
-2.5705 HAIR-GEL -0.2218
-2.5705 JACK -0.2218
-2.5705 JELLY -0.2218
-2.5705 KITCHEN -0.2218
-2.5705 LIVING-ROOM -0.2218
-2.5705 LIVING-TABLE -0.2218
-2.5705 LIVING-THING -0.2218
-2.5705 MAIZE -0.2218
-2.5705 NO-GOOD-ANSWER -0.2218
-2.2695 NOW-WE-GET-ALL-POINT -0.2218
-2.5705 OK-VERY-GOOD -0.2218
-2.5705 ONION -0.2218
-2.5705 ORANGE -0.2218
-2.5705 PEANUT -0.2218
-2.5705 PLATE -0.2218
-2.5705 RADISH -0.2218
-2.5705 SHAMPOO -0.2218
-2.5705 SIDE-SHELF -0.2218
-2.5705 SOUP-BOWL -0.2218
-2.5705 SPOON -0.2218
-2.5705 STOP -0.2218
-2.5705 STOP-FOLLOW-ME -0.2218
-2.5705 THE-BEDROOM -0.2218
-2.5705 THE-DINING-ROOM -0.2218
-2.5705 THE-KITCHEN -0.2218
-2.5705 THE-LIVING-ROOM -0.2218
-2.5705 THE-POINT-FIVE-IS -0.2218
-2.5705 THE-POINT-FOUR-IS -0.2218
-2.5705 THE-POINT-ONE-IS -0.2218
-2.5705 THE-POINT-THREE-IS -0.2218
-2.5705 THE-POINT-TWO-IS -0.2218
-2.5705 TO-BEDROOM -0.2218
-2.5705 TO-DINING-ROOM -0.2218
-2.5705 TO-KITCHEN -0.2218
-2.5705 TO-LIVING-ROOM -0.2218
-2.5705 TO-THE-BEDROOM -0.2218
-2.5705 TO-THE-DINING-ROOM -0.2218
-2.5705 TO-THE-KITCHEN -0.2218
-2.5705 TO-THE-LIVING-ROOM -0.2218
-2.5705 WATER -0.2218

\2-grams:
-2.0934 <s> APPLE 0.0000
-2.0934 <s> BEDROOM 0.0000
-2.0934 <s> BEER 0.0000
-2.0934 <s> BOOK-SHELF 0.0000
-2.0934 <s> BOWL 0.0000
-2.0934 <s> BREAD 0.0000
-2.0934 <s> CANDY 0.0000
-2.0934 <s> CHAIR 0.0000
-2.0934 <s> CHEWING-GUM 0.0000
-2.0934 <s> CHIPS 0.0000
-2.0934 <s> CHOPSTICKS 0.0000
-2.0934 <s> COLA 0.0000
-2.0934 <s> CUP-STAR 0.0000
-2.0934 <s> CURRY 0.0000
-2.0934 <s> DESK 0.0000
-2.0934 <s> DINING-ROOM 0.0000
-2.0934 <s> EMOLLIENT-CREAM 0.0000
-2.0934 <s> FOLLOW-ME 0.0000
-2.0934 <s> FORK 0.0000
-2.0934 <s> FRUIT 0.0000
-2.0934 <s> GREEN-TEA 0.0000
-2.0934 <s> HAIR-GEL 0.0000
-2.0934 <s> JACK 0.0000
-2.0934 <s> JELLY 0.0000
-2.0934 <s> KITCHEN 0.0000
-2.0934 <s> LIVING-ROOM 0.0000
-2.0934 <s> LIVING-TABLE 0.0000
-2.0934 <s> LIVING-THING 0.0000
-2.0934 <s> MAIZE 0.0000
-2.0934 <s> NO-GOOD-ANSWER 0.0000
-1.7924 <s> NOW-WE-GET-ALL-POINT 0.0000
-2.0934 <s> OK-VERY-GOOD 0.0000
-2.0934 <s> ONION 0.0000
-2.0934 <s> ORANGE 0.0000
-2.0934 <s> PEANUT 0.0000
-2.0934 <s> PLATE 0.0000
-2.0934 <s> RADISH 0.0000
-2.0934 <s> SHAMPOO 0.0000
-2.0934 <s> SIDE-SHELF 0.0000
-2.0934 <s> SOUP-BOWL 0.0000
-2.0934 <s> SPOON 0.0000
-2.0934 <s> STOP 0.0000
-2.0934 <s> STOP-FOLLOW-ME 0.0000
-2.0934 <s> THE-BEDROOM 0.0000
-2.0934 <s> THE-DINING-ROOM 0.0000
-2.0934 <s> THE-KITCHEN 0.0000
-2.0934 <s> THE-LIVING-ROOM 0.0000
-2.0934 <s> THE-POINT-FIVE-IS 0.0000
-2.0934 <s> THE-POINT-FOUR-IS 0.0000
-2.0934 <s> THE-POINT-ONE-IS 0.0000
-2.0934 <s> THE-POINT-THREE-IS 0.0000
-2.0934 <s> THE-POINT-TWO-IS 0.0000
-2.0934 <s> TO-BEDROOM 0.0000
-2.0934 <s> TO-DINING-ROOM 0.0000
-2.0934 <s> TO-KITCHEN 0.0000
-2.0934 <s> TO-LIVING-ROOM 0.0000
-2.0934 <s> TO-THE-BEDROOM 0.0000
-2.0934 <s> TO-THE-DINING-ROOM 0.0000
-2.0934 <s> TO-THE-KITCHEN 0.0000
-2.0934 <s> TO-THE-LIVING-ROOM 0.0000
-2.0934 <s> WATER 0.0000
-0.3010 APPLE </s> -0.3010
-0.3010 BEDROOM </s> -0.3010
-0.3010 BEER </s> -0.3010
-0.3010 BOOK-SHELF </s> -0.3010
-0.3010 BOWL </s> -0.3010
-0.3010 BREAD </s> -0.3010
-0.3010 CANDY </s> -0.3010
-0.3010 CHAIR </s> -0.3010
-0.3010 CHEWING-GUM </s> -0.3010
-0.3010 CHIPS </s> -0.3010
-0.3010 CHOPSTICKS </s> -0.3010
-0.3010 COLA </s> -0.3010
-0.3010 CUP-STAR </s> -0.3010
-0.3010 CURRY </s> -0.3010
-0.3010 DESK </s> -0.3010
-0.3010 DINING-ROOM </s> -0.3010
-0.3010 EMOLLIENT-CREAM </s> -0.3010
-0.3010 FOLLOW-ME </s> -0.3010
-0.3010 FORK </s> -0.3010
-0.3010 FRUIT </s> -0.3010
-0.3010 GREEN-TEA </s> -0.3010
-0.3010 HAIR-GEL </s> -0.3010
-0.3010 JACK </s> -0.3010
-0.3010 JELLY </s> -0.3010
-0.3010 KITCHEN </s> -0.3010
-0.3010 LIVING-ROOM </s> -0.3010
-0.3010 LIVING-TABLE </s> -0.3010
-0.3010 LIVING-THING </s> -0.3010
-0.3010 MAIZE </s> -0.3010
-0.3010 NO-GOOD-ANSWER </s> -0.3010
-0.3010 NOW-WE-GET-ALL-POINT </s> -0.3010
-0.3010 OK-VERY-GOOD </s> -0.3010
-0.3010 ONION </s> -0.3010
-0.3010 ORANGE </s> -0.3010
-0.3010 PEANUT </s> -0.3010
-0.3010 PLATE </s> -0.3010
-0.3010 RADISH </s> -0.3010
-0.3010 SHAMPOO </s> -0.3010
-0.3010 SIDE-SHELF </s> -0.3010
-0.3010 SOUP-BOWL </s> -0.3010
-0.3010 SPOON </s> -0.3010
-0.3010 STOP </s> -0.3010
-0.3010 STOP-FOLLOW-ME </s> -0.3010
-0.3010 THE-BEDROOM </s> -0.3010
-0.3010 THE-DINING-ROOM </s> -0.3010
-0.3010 THE-KITCHEN </s> -0.3010
-0.3010 THE-LIVING-ROOM </s> -0.3010
-0.3010 THE-POINT-FIVE-IS </s> -0.3010
-0.3010 THE-POINT-FOUR-IS </s> -0.3010
-0.3010 THE-POINT-ONE-IS </s> -0.3010
-0.3010 THE-POINT-THREE-IS </s> -0.3010
-0.3010 THE-POINT-TWO-IS </s> -0.3010
-0.3010 TO-BEDROOM </s> -0.3010
-0.3010 TO-DINING-ROOM </s> -0.3010
-0.3010 TO-KITCHEN </s> -0.3010
-0.3010 TO-LIVING-ROOM </s> -0.3010
-0.3010 TO-THE-BEDROOM </s> -0.3010
-0.3010 TO-THE-DINING-ROOM </s> -0.3010
-0.3010 TO-THE-KITCHEN </s> -0.3010
-0.3010 TO-THE-LIVING-ROOM </s> -0.3010
-0.3010 WATER </s> -0.3010

\3-grams:
-0.3010 <s> APPLE </s>
-0.3010 <s> BEDROOM </s>
-0.3010 <s> BEER </s>
-0.3010 <s> BOOK-SHELF </s>
-0.3010 <s> BOWL </s>
-0.3010 <s> BREAD </s>
-0.3010 <s> CANDY </s>
-0.3010 <s> CHAIR </s>
-0.3010 <s> CHEWING-GUM </s>
-0.3010 <s> CHIPS </s>
-0.3010 <s> CHOPSTICKS </s>
-0.3010 <s> COLA </s>
-0.3010 <s> CUP-STAR </s>
-0.3010 <s> CURRY </s>
-0.3010 <s> DESK </s>
-0.3010 <s> DINING-ROOM </s>
-0.3010 <s> EMOLLIENT-CREAM </s>
-0.3010 <s> FOLLOW-ME </s>
-0.3010 <s> FORK </s>
-0.3010 <s> FRUIT </s>
-0.3010 <s> GREEN-TEA </s>
-0.3010 <s> HAIR-GEL </s>
-0.3010 <s> JACK </s>
-0.3010 <s> JELLY </s>
-0.3010 <s> KITCHEN </s>
-0.3010 <s> LIVING-ROOM </s>
-0.3010 <s> LIVING-TABLE </s>
-0.3010 <s> LIVING-THING </s>
-0.3010 <s> MAIZE </s>
-0.3010 <s> NO-GOOD-ANSWER </s>
-0.3010 <s> NOW-WE-GET-ALL-POINT </s>
-0.3010 <s> OK-VERY-GOOD </s>
-0.3010 <s> ONION </s>
-0.3010 <s> ORANGE </s>
-0.3010 <s> PEANUT </s>
-0.3010 <s> PLATE </s>
-0.3010 <s> RADISH </s>
-0.3010 <s> SHAMPOO </s>
-0.3010 <s> SIDE-SHELF </s>
-0.3010 <s> SOUP-BOWL </s>
-0.3010 <s> SPOON </s>
-0.3010 <s> STOP </s>
-0.3010 <s> STOP-FOLLOW-ME </s>
-0.3010 <s> THE-BEDROOM </s>
-0.3010 <s> THE-DINING-ROOM </s>
-0.3010 <s> THE-KITCHEN </s>
-0.3010 <s> THE-LIVING-ROOM </s>
-0.3010 <s> THE-POINT-FIVE-IS </s>
-0.3010 <s> THE-POINT-FOUR-IS </s>
-0.3010 <s> THE-POINT-ONE-IS </s>
-0.3010 <s> THE-POINT-THREE-IS </s>
-0.3010 <s> THE-POINT-TWO-IS </s>
-0.3010 <s> TO-BEDROOM </s>
-0.3010 <s> TO-DINING-ROOM </s>
-0.3010 <s> TO-KITCHEN </s>
-0.3010 <s> TO-LIVING-ROOM </s>
-0.3010 <s> TO-THE-BEDROOM </s>
-0.3010 <s> TO-THE-DINING-ROOM </s>
-0.3010 <s> TO-THE-KITCHEN </s>
-0.3010 <s> TO-THE-LIVING-ROOM </s>
-0.3010 <s> WATER </s>

\end\
