Language model created by QuickLM on Fri May  4 00:20:20 EDT 2018
Copyright (c) 1996-2010 Carnegie Mellon University and Alexander I. Rudnicky

The model is in standard ARPA format, designed by Doug Paul while he was at MITRE.

The code that was used to produce this language model is available in Open Source.
Please visit http://www.speech.cs.cmu.edu/tools/ for more information

The (fixed) discount mass is 0.5. The backoffs are computed using the ratio method.
This model based on a corpus of 105 sentences and 107 words

\data\
ngram 1=107
ngram 2=210
ngram 3=105

\1-grams:
-0.7782 </s> -0.3010
-0.7782 <s> -0.2218
-2.7993 AMELIA -0.2218
-2.7993 ANSWER-SOME-QUESTIONS -0.2218
-2.7993 AVERY -0.2218
-2.7993 BED -0.2218
-2.7993 BEDROOM -0.2218
-2.7993 BOOK-SHELF -0.2218
-2.7993 CHEWING-GUM -0.2218
-2.7993 CHLOE -0.2218
-2.7993 CHOCO-SNACK -0.2218
-2.7993 CORRIDOR -0.2218
-2.7993 CUPBOARD -0.2218
-2.7993 CURRY -0.2218
-2.7993 DEKOPON -0.2218
-2.7993 DESK -0.2218
-2.7993 DONALD -0.2218
-2.7993 DRINK -0.2218
-2.7993 EMMA -0.2218
-2.7993 ENERGY-DRINK -0.2218
-2.7993 FOOD -0.2218
-2.7993 FRUIT -0.2218
-2.7993 HARPER -0.2218
-2.7993 JACK -0.2218
-2.7993 JACKSON -0.2218
-2.7993 JACOB -0.2218
-2.7993 JAM -0.2218
-2.7993 JOHN -0.2218
-2.7993 JUST-GO-TO-THE-START-POINT -0.2218
-2.7993 KIDS-ROOM -0.2218
-2.7993 KIM -0.2218
-2.7993 KITCHEN -0.2218
-2.7993 KITCHEN-RACK -0.2218
-2.7993 KITCHEN-TABLE -0.2218
-2.7993 KIWI -0.2218
-2.7993 LIAM -0.2218
-2.7993 LILY -0.2218
-2.7993 LIVING-RACK -0.2218
-2.7993 LIVING-ROOM -0.2218
-2.7993 LIVING-TABLE -0.2218
-2.7993 LUCAS -0.2218
-2.7993 MASON -0.2218
-2.7993 NO-GOOD-ANSWER -0.2218
-2.7993 NOAH -0.2218
-2.7993 NOW-WE-BEGIN -0.2218
-2.7993 OK-VERY-GOOD -0.2218
-2.7993 OLIVER -0.2218
-2.7993 OLIVIA -0.2218
-2.7993 SAMANTHA -0.2218
-2.7993 SIDE-SHELF -0.2218
-2.7993 SNACK -0.2218
-2.7993 SOFA -0.2218
-2.7993 SOPHIA -0.2218
-2.7993 SOUP -0.2218
-2.7993 SOY-MILK -0.2218
-2.7993 STEVE -0.2218
-2.7993 TEA -0.2218
-2.7993 TEEPEE -0.2218
-2.7993 THE-BED -0.2218
-2.7993 THE-BEDROOM -0.2218
-2.7993 THE-BOOK-SHELF -0.2218
-2.7993 THE-CORRIDOR -0.2218
-2.7993 THE-CUPBOARD -0.2218
-2.7993 THE-DESK -0.2218
-2.7993 THE-KIDS-ROOM -0.2218
-2.7993 THE-KITCHEN -0.2218
-2.7993 THE-KITCHEN-RACK -0.2218
-2.7993 THE-KITCHEN-TABLE -0.2218
-2.7993 THE-LIVING-RACK -0.2218
-2.7993 THE-LIVING-ROOM -0.2218
-2.7993 THE-LIVING-TABLE -0.2218
-2.7993 THE-SIDE-SHELF -0.2218
-2.7993 THE-SOFA -0.2218
-2.7993 THE-TEEPEE -0.2218
-2.7993 TO-BED -0.2218
-2.7993 TO-BEDROOM -0.2218
-2.7993 TO-BOOK-SHELF -0.2218
-2.7993 TO-CORRIDOR -0.2218
-2.7993 TO-CUPBOARD -0.2218
-2.7993 TO-DESK -0.2218
-2.7993 TO-KIDS-ROOM -0.2218
-2.7993 TO-KITCHEN -0.2218
-2.7993 TO-KITCHEN-RACK -0.2218
-2.7993 TO-KITCHEN-TABLE -0.2218
-2.7993 TO-LIVING-RACK -0.2218
-2.7993 TO-LIVING-ROOM -0.2218
-2.7993 TO-LIVING-TABLE -0.2218
-2.7993 TO-SIDE-SHELF -0.2218
-2.7993 TO-SOFA -0.2218
-2.7993 TO-TEEPEE -0.2218
-2.7993 TO-THE-BED -0.2218
-2.7993 TO-THE-BEDROOM -0.2218
-2.7993 TO-THE-BOOK-SHELF -0.2218
-2.7993 TO-THE-CORRIDOR -0.2218
-2.7993 TO-THE-CUPBOARD -0.2218
-2.7993 TO-THE-DESK -0.2218
-2.7993 TO-THE-KIDS-ROOM -0.2218
-2.7993 TO-THE-KITCHEN -0.2218
-2.7993 TO-THE-KITCHEN-RACK -0.2218
-2.7993 TO-THE-KITCHEN-TABLE -0.2218
-2.7993 TO-THE-LIVING-RACK -0.2218
-2.7993 TO-THE-LIVING-ROOM -0.2218
-2.7993 TO-THE-LIVING-TABLE -0.2218
-2.7993 TO-THE-SIDE-SHELF -0.2218
-2.7993 TO-THE-SOFA -0.2218
-2.7993 TO-THE-TEEPEE -0.2218
-2.7993 YOU-CAN-JUST-GO-OUT -0.2218

\2-grams:
-2.3222 <s> AMELIA 0.0000
-2.3222 <s> ANSWER-SOME-QUESTIONS 0.0000
-2.3222 <s> AVERY 0.0000
-2.3222 <s> BED 0.0000
-2.3222 <s> BEDROOM 0.0000
-2.3222 <s> BOOK-SHELF 0.0000
-2.3222 <s> CHEWING-GUM 0.0000
-2.3222 <s> CHLOE 0.0000
-2.3222 <s> CHOCO-SNACK 0.0000
-2.3222 <s> CORRIDOR 0.0000
-2.3222 <s> CUPBOARD 0.0000
-2.3222 <s> CURRY 0.0000
-2.3222 <s> DEKOPON 0.0000
-2.3222 <s> DESK 0.0000
-2.3222 <s> DONALD 0.0000
-2.3222 <s> DRINK 0.0000
-2.3222 <s> EMMA 0.0000
-2.3222 <s> ENERGY-DRINK 0.0000
-2.3222 <s> FOOD 0.0000
-2.3222 <s> FRUIT 0.0000
-2.3222 <s> HARPER 0.0000
-2.3222 <s> JACK 0.0000
-2.3222 <s> JACKSON 0.0000
-2.3222 <s> JACOB 0.0000
-2.3222 <s> JAM 0.0000
-2.3222 <s> JOHN 0.0000
-2.3222 <s> JUST-GO-TO-THE-START-POINT 0.0000
-2.3222 <s> KIDS-ROOM 0.0000
-2.3222 <s> KIM 0.0000
-2.3222 <s> KITCHEN 0.0000
-2.3222 <s> KITCHEN-RACK 0.0000
-2.3222 <s> KITCHEN-TABLE 0.0000
-2.3222 <s> KIWI 0.0000
-2.3222 <s> LIAM 0.0000
-2.3222 <s> LILY 0.0000
-2.3222 <s> LIVING-RACK 0.0000
-2.3222 <s> LIVING-ROOM 0.0000
-2.3222 <s> LIVING-TABLE 0.0000
-2.3222 <s> LUCAS 0.0000
-2.3222 <s> MASON 0.0000
-2.3222 <s> NO-GOOD-ANSWER 0.0000
-2.3222 <s> NOAH 0.0000
-2.3222 <s> NOW-WE-BEGIN 0.0000
-2.3222 <s> OK-VERY-GOOD 0.0000
-2.3222 <s> OLIVER 0.0000
-2.3222 <s> OLIVIA 0.0000
-2.3222 <s> SAMANTHA 0.0000
-2.3222 <s> SIDE-SHELF 0.0000
-2.3222 <s> SNACK 0.0000
-2.3222 <s> SOFA 0.0000
-2.3222 <s> SOPHIA 0.0000
-2.3222 <s> SOUP 0.0000
-2.3222 <s> SOY-MILK 0.0000
-2.3222 <s> STEVE 0.0000
-2.3222 <s> TEA 0.0000
-2.3222 <s> TEEPEE 0.0000
-2.3222 <s> THE-BED 0.0000
-2.3222 <s> THE-BEDROOM 0.0000
-2.3222 <s> THE-BOOK-SHELF 0.0000
-2.3222 <s> THE-CORRIDOR 0.0000
-2.3222 <s> THE-CUPBOARD 0.0000
-2.3222 <s> THE-DESK 0.0000
-2.3222 <s> THE-KIDS-ROOM 0.0000
-2.3222 <s> THE-KITCHEN 0.0000
-2.3222 <s> THE-KITCHEN-RACK 0.0000
-2.3222 <s> THE-KITCHEN-TABLE 0.0000
-2.3222 <s> THE-LIVING-RACK 0.0000
-2.3222 <s> THE-LIVING-ROOM 0.0000
-2.3222 <s> THE-LIVING-TABLE 0.0000
-2.3222 <s> THE-SIDE-SHELF 0.0000
-2.3222 <s> THE-SOFA 0.0000
-2.3222 <s> THE-TEEPEE 0.0000
-2.3222 <s> TO-BED 0.0000
-2.3222 <s> TO-BEDROOM 0.0000
-2.3222 <s> TO-BOOK-SHELF 0.0000
-2.3222 <s> TO-CORRIDOR 0.0000
-2.3222 <s> TO-CUPBOARD 0.0000
-2.3222 <s> TO-DESK 0.0000
-2.3222 <s> TO-KIDS-ROOM 0.0000
-2.3222 <s> TO-KITCHEN 0.0000
-2.3222 <s> TO-KITCHEN-RACK 0.0000
-2.3222 <s> TO-KITCHEN-TABLE 0.0000
-2.3222 <s> TO-LIVING-RACK 0.0000
-2.3222 <s> TO-LIVING-ROOM 0.0000
-2.3222 <s> TO-LIVING-TABLE 0.0000
-2.3222 <s> TO-SIDE-SHELF 0.0000
-2.3222 <s> TO-SOFA 0.0000
-2.3222 <s> TO-TEEPEE 0.0000
-2.3222 <s> TO-THE-BED 0.0000
-2.3222 <s> TO-THE-BEDROOM 0.0000
-2.3222 <s> TO-THE-BOOK-SHELF 0.0000
-2.3222 <s> TO-THE-CORRIDOR 0.0000
-2.3222 <s> TO-THE-CUPBOARD 0.0000
-2.3222 <s> TO-THE-DESK 0.0000
-2.3222 <s> TO-THE-KIDS-ROOM 0.0000
-2.3222 <s> TO-THE-KITCHEN 0.0000
-2.3222 <s> TO-THE-KITCHEN-RACK 0.0000
-2.3222 <s> TO-THE-KITCHEN-TABLE 0.0000
-2.3222 <s> TO-THE-LIVING-RACK 0.0000
-2.3222 <s> TO-THE-LIVING-ROOM 0.0000
-2.3222 <s> TO-THE-LIVING-TABLE 0.0000
-2.3222 <s> TO-THE-SIDE-SHELF 0.0000
-2.3222 <s> TO-THE-SOFA 0.0000
-2.3222 <s> TO-THE-TEEPEE 0.0000
-2.3222 <s> YOU-CAN-JUST-GO-OUT 0.0000
-0.3010 AMELIA </s> -0.3010
-0.3010 ANSWER-SOME-QUESTIONS </s> -0.3010
-0.3010 AVERY </s> -0.3010
-0.3010 BED </s> -0.3010
-0.3010 BEDROOM </s> -0.3010
-0.3010 BOOK-SHELF </s> -0.3010
-0.3010 CHEWING-GUM </s> -0.3010
-0.3010 CHLOE </s> -0.3010
-0.3010 CHOCO-SNACK </s> -0.3010
-0.3010 CORRIDOR </s> -0.3010
-0.3010 CUPBOARD </s> -0.3010
-0.3010 CURRY </s> -0.3010
-0.3010 DEKOPON </s> -0.3010
-0.3010 DESK </s> -0.3010
-0.3010 DONALD </s> -0.3010
-0.3010 DRINK </s> -0.3010
-0.3010 EMMA </s> -0.3010
-0.3010 ENERGY-DRINK </s> -0.3010
-0.3010 FOOD </s> -0.3010
-0.3010 FRUIT </s> -0.3010
-0.3010 HARPER </s> -0.3010
-0.3010 JACK </s> -0.3010
-0.3010 JACKSON </s> -0.3010
-0.3010 JACOB </s> -0.3010
-0.3010 JAM </s> -0.3010
-0.3010 JOHN </s> -0.3010
-0.3010 JUST-GO-TO-THE-START-POINT </s> -0.3010
-0.3010 KIDS-ROOM </s> -0.3010
-0.3010 KIM </s> -0.3010
-0.3010 KITCHEN </s> -0.3010
-0.3010 KITCHEN-RACK </s> -0.3010
-0.3010 KITCHEN-TABLE </s> -0.3010
-0.3010 KIWI </s> -0.3010
-0.3010 LIAM </s> -0.3010
-0.3010 LILY </s> -0.3010
-0.3010 LIVING-RACK </s> -0.3010
-0.3010 LIVING-ROOM </s> -0.3010
-0.3010 LIVING-TABLE </s> -0.3010
-0.3010 LUCAS </s> -0.3010
-0.3010 MASON </s> -0.3010
-0.3010 NO-GOOD-ANSWER </s> -0.3010
-0.3010 NOAH </s> -0.3010
-0.3010 NOW-WE-BEGIN </s> -0.3010
-0.3010 OK-VERY-GOOD </s> -0.3010
-0.3010 OLIVER </s> -0.3010
-0.3010 OLIVIA </s> -0.3010
-0.3010 SAMANTHA </s> -0.3010
-0.3010 SIDE-SHELF </s> -0.3010
-0.3010 SNACK </s> -0.3010
-0.3010 SOFA </s> -0.3010
-0.3010 SOPHIA </s> -0.3010
-0.3010 SOUP </s> -0.3010
-0.3010 SOY-MILK </s> -0.3010
-0.3010 STEVE </s> -0.3010
-0.3010 TEA </s> -0.3010
-0.3010 TEEPEE </s> -0.3010
-0.3010 THE-BED </s> -0.3010
-0.3010 THE-BEDROOM </s> -0.3010
-0.3010 THE-BOOK-SHELF </s> -0.3010
-0.3010 THE-CORRIDOR </s> -0.3010
-0.3010 THE-CUPBOARD </s> -0.3010
-0.3010 THE-DESK </s> -0.3010
-0.3010 THE-KIDS-ROOM </s> -0.3010
-0.3010 THE-KITCHEN </s> -0.3010
-0.3010 THE-KITCHEN-RACK </s> -0.3010
-0.3010 THE-KITCHEN-TABLE </s> -0.3010
-0.3010 THE-LIVING-RACK </s> -0.3010
-0.3010 THE-LIVING-ROOM </s> -0.3010
-0.3010 THE-LIVING-TABLE </s> -0.3010
-0.3010 THE-SIDE-SHELF </s> -0.3010
-0.3010 THE-SOFA </s> -0.3010
-0.3010 THE-TEEPEE </s> -0.3010
-0.3010 TO-BED </s> -0.3010
-0.3010 TO-BEDROOM </s> -0.3010
-0.3010 TO-BOOK-SHELF </s> -0.3010
-0.3010 TO-CORRIDOR </s> -0.3010
-0.3010 TO-CUPBOARD </s> -0.3010
-0.3010 TO-DESK </s> -0.3010
-0.3010 TO-KIDS-ROOM </s> -0.3010
-0.3010 TO-KITCHEN </s> -0.3010
-0.3010 TO-KITCHEN-RACK </s> -0.3010
-0.3010 TO-KITCHEN-TABLE </s> -0.3010
-0.3010 TO-LIVING-RACK </s> -0.3010
-0.3010 TO-LIVING-ROOM </s> -0.3010
-0.3010 TO-LIVING-TABLE </s> -0.3010
-0.3010 TO-SIDE-SHELF </s> -0.3010
-0.3010 TO-SOFA </s> -0.3010
-0.3010 TO-TEEPEE </s> -0.3010
-0.3010 TO-THE-BED </s> -0.3010
-0.3010 TO-THE-BEDROOM </s> -0.3010
-0.3010 TO-THE-BOOK-SHELF </s> -0.3010
-0.3010 TO-THE-CORRIDOR </s> -0.3010
-0.3010 TO-THE-CUPBOARD </s> -0.3010
-0.3010 TO-THE-DESK </s> -0.3010
-0.3010 TO-THE-KIDS-ROOM </s> -0.3010
-0.3010 TO-THE-KITCHEN </s> -0.3010
-0.3010 TO-THE-KITCHEN-RACK </s> -0.3010
-0.3010 TO-THE-KITCHEN-TABLE </s> -0.3010
-0.3010 TO-THE-LIVING-RACK </s> -0.3010
-0.3010 TO-THE-LIVING-ROOM </s> -0.3010
-0.3010 TO-THE-LIVING-TABLE </s> -0.3010
-0.3010 TO-THE-SIDE-SHELF </s> -0.3010
-0.3010 TO-THE-SOFA </s> -0.3010
-0.3010 TO-THE-TEEPEE </s> -0.3010
-0.3010 YOU-CAN-JUST-GO-OUT </s> -0.3010

\3-grams:
-0.3010 <s> AMELIA </s>
-0.3010 <s> ANSWER-SOME-QUESTIONS </s>
-0.3010 <s> AVERY </s>
-0.3010 <s> BED </s>
-0.3010 <s> BEDROOM </s>
-0.3010 <s> BOOK-SHELF </s>
-0.3010 <s> CHEWING-GUM </s>
-0.3010 <s> CHLOE </s>
-0.3010 <s> CHOCO-SNACK </s>
-0.3010 <s> CORRIDOR </s>
-0.3010 <s> CUPBOARD </s>
-0.3010 <s> CURRY </s>
-0.3010 <s> DEKOPON </s>
-0.3010 <s> DESK </s>
-0.3010 <s> DONALD </s>
-0.3010 <s> DRINK </s>
-0.3010 <s> EMMA </s>
-0.3010 <s> ENERGY-DRINK </s>
-0.3010 <s> FOOD </s>
-0.3010 <s> FRUIT </s>
-0.3010 <s> HARPER </s>
-0.3010 <s> JACK </s>
-0.3010 <s> JACKSON </s>
-0.3010 <s> JACOB </s>
-0.3010 <s> JAM </s>
-0.3010 <s> JOHN </s>
-0.3010 <s> JUST-GO-TO-THE-START-POINT </s>
-0.3010 <s> KIDS-ROOM </s>
-0.3010 <s> KIM </s>
-0.3010 <s> KITCHEN </s>
-0.3010 <s> KITCHEN-RACK </s>
-0.3010 <s> KITCHEN-TABLE </s>
-0.3010 <s> KIWI </s>
-0.3010 <s> LIAM </s>
-0.3010 <s> LILY </s>
-0.3010 <s> LIVING-RACK </s>
-0.3010 <s> LIVING-ROOM </s>
-0.3010 <s> LIVING-TABLE </s>
-0.3010 <s> LUCAS </s>
-0.3010 <s> MASON </s>
-0.3010 <s> NO-GOOD-ANSWER </s>
-0.3010 <s> NOAH </s>
-0.3010 <s> NOW-WE-BEGIN </s>
-0.3010 <s> OK-VERY-GOOD </s>
-0.3010 <s> OLIVER </s>
-0.3010 <s> OLIVIA </s>
-0.3010 <s> SAMANTHA </s>
-0.3010 <s> SIDE-SHELF </s>
-0.3010 <s> SNACK </s>
-0.3010 <s> SOFA </s>
-0.3010 <s> SOPHIA </s>
-0.3010 <s> SOUP </s>
-0.3010 <s> SOY-MILK </s>
-0.3010 <s> STEVE </s>
-0.3010 <s> TEA </s>
-0.3010 <s> TEEPEE </s>
-0.3010 <s> THE-BED </s>
-0.3010 <s> THE-BEDROOM </s>
-0.3010 <s> THE-BOOK-SHELF </s>
-0.3010 <s> THE-CORRIDOR </s>
-0.3010 <s> THE-CUPBOARD </s>
-0.3010 <s> THE-DESK </s>
-0.3010 <s> THE-KIDS-ROOM </s>
-0.3010 <s> THE-KITCHEN </s>
-0.3010 <s> THE-KITCHEN-RACK </s>
-0.3010 <s> THE-KITCHEN-TABLE </s>
-0.3010 <s> THE-LIVING-RACK </s>
-0.3010 <s> THE-LIVING-ROOM </s>
-0.3010 <s> THE-LIVING-TABLE </s>
-0.3010 <s> THE-SIDE-SHELF </s>
-0.3010 <s> THE-SOFA </s>
-0.3010 <s> THE-TEEPEE </s>
-0.3010 <s> TO-BED </s>
-0.3010 <s> TO-BEDROOM </s>
-0.3010 <s> TO-BOOK-SHELF </s>
-0.3010 <s> TO-CORRIDOR </s>
-0.3010 <s> TO-CUPBOARD </s>
-0.3010 <s> TO-DESK </s>
-0.3010 <s> TO-KIDS-ROOM </s>
-0.3010 <s> TO-KITCHEN </s>
-0.3010 <s> TO-KITCHEN-RACK </s>
-0.3010 <s> TO-KITCHEN-TABLE </s>
-0.3010 <s> TO-LIVING-RACK </s>
-0.3010 <s> TO-LIVING-ROOM </s>
-0.3010 <s> TO-LIVING-TABLE </s>
-0.3010 <s> TO-SIDE-SHELF </s>
-0.3010 <s> TO-SOFA </s>
-0.3010 <s> TO-TEEPEE </s>
-0.3010 <s> TO-THE-BED </s>
-0.3010 <s> TO-THE-BEDROOM </s>
-0.3010 <s> TO-THE-BOOK-SHELF </s>
-0.3010 <s> TO-THE-CORRIDOR </s>
-0.3010 <s> TO-THE-CUPBOARD </s>
-0.3010 <s> TO-THE-DESK </s>
-0.3010 <s> TO-THE-KIDS-ROOM </s>
-0.3010 <s> TO-THE-KITCHEN </s>
-0.3010 <s> TO-THE-KITCHEN-RACK </s>
-0.3010 <s> TO-THE-KITCHEN-TABLE </s>
-0.3010 <s> TO-THE-LIVING-RACK </s>
-0.3010 <s> TO-THE-LIVING-ROOM </s>
-0.3010 <s> TO-THE-LIVING-TABLE </s>
-0.3010 <s> TO-THE-SIDE-SHELF </s>
-0.3010 <s> TO-THE-SOFA </s>
-0.3010 <s> TO-THE-TEEPEE </s>
-0.3010 <s> YOU-CAN-JUST-GO-OUT </s>

\end\
