Language model created by QuickLM on Sat Apr 14 01:41:58 EDT 2018
Copyright (c) 1996-2010 Carnegie Mellon University and Alexander I. Rudnicky

The model is in standard ARPA format, designed by Doug Paul while he was at MITRE.

The code that was used to produce this language model is available in Open Source.
Please visit http://www.speech.cs.cmu.edu/tools/ for more information

The (fixed) discount mass is 0.5. The backoffs are computed using the ratio method.
This model based on a corpus of 15 sentences and 17 words

\data\
ngram 1=17
ngram 2=30
ngram 3=15

\1-grams:
-0.7782 </s> -0.3010
-0.7782 <s> -0.2218
-1.9542 GO-BACK-TO-THE-TABLES -0.2218
-1.9542 I-NEED-SOME-BISCUIT-PLEASE -0.2218
-1.9542 I-NEED-SOME-CAKE-PLEASE -0.2218
-1.9542 I-NEED-SOME-CHIPS-PLEASE -0.2218
-1.9542 I-NEED-SOME-COFFEE-PLEASE -0.2218
-1.9542 I-NEED-SOME-COLA-PLEASE -0.2218
-1.9542 I-NEED-SOME-MILK-PLEASE -0.2218
-1.9542 I-NEED-SOME-NOODLES-PLEASE -0.2218
-1.9542 I-NEED-SOME-ROLL-PAPER-PLEASE -0.2218
-1.9542 I-NEED-SOME-SOAP-PLEASE -0.2218
-1.9542 I-NEED-SOME-TOOTHPASTE-PLEASE -0.2218
-1.9542 I-NEED-SOME-WATER-PLEASE -0.2218
-1.9542 JACK -0.2218
-1.9542 START-TO-DETECT-THE-BAR-DIRECTION -0.2218
-1.9542 THATS-ALL-THANK-YOU -0.2218

\2-grams:
-1.4771 <s> GO-BACK-TO-THE-TABLES 0.0000
-1.4771 <s> I-NEED-SOME-BISCUIT-PLEASE 0.0000
-1.4771 <s> I-NEED-SOME-CAKE-PLEASE 0.0000
-1.4771 <s> I-NEED-SOME-CHIPS-PLEASE 0.0000
-1.4771 <s> I-NEED-SOME-COFFEE-PLEASE 0.0000
-1.4771 <s> I-NEED-SOME-COLA-PLEASE 0.0000
-1.4771 <s> I-NEED-SOME-MILK-PLEASE 0.0000
-1.4771 <s> I-NEED-SOME-NOODLES-PLEASE 0.0000
-1.4771 <s> I-NEED-SOME-ROLL-PAPER-PLEASE 0.0000
-1.4771 <s> I-NEED-SOME-SOAP-PLEASE 0.0000
-1.4771 <s> I-NEED-SOME-TOOTHPASTE-PLEASE 0.0000
-1.4771 <s> I-NEED-SOME-WATER-PLEASE 0.0000
-1.4771 <s> JACK 0.0000
-1.4771 <s> START-TO-DETECT-THE-BAR-DIRECTION 0.0000
-1.4771 <s> THATS-ALL-THANK-YOU 0.0000
-0.3010 GO-BACK-TO-THE-TABLES </s> -0.3010
-0.3010 I-NEED-SOME-BISCUIT-PLEASE </s> -0.3010
-0.3010 I-NEED-SOME-CAKE-PLEASE </s> -0.3010
-0.3010 I-NEED-SOME-CHIPS-PLEASE </s> -0.3010
-0.3010 I-NEED-SOME-COFFEE-PLEASE </s> -0.3010
-0.3010 I-NEED-SOME-COLA-PLEASE </s> -0.3010
-0.3010 I-NEED-SOME-MILK-PLEASE </s> -0.3010
-0.3010 I-NEED-SOME-NOODLES-PLEASE </s> -0.3010
-0.3010 I-NEED-SOME-ROLL-PAPER-PLEASE </s> -0.3010
-0.3010 I-NEED-SOME-SOAP-PLEASE </s> -0.3010
-0.3010 I-NEED-SOME-TOOTHPASTE-PLEASE </s> -0.3010
-0.3010 I-NEED-SOME-WATER-PLEASE </s> -0.3010
-0.3010 JACK </s> -0.3010
-0.3010 START-TO-DETECT-THE-BAR-DIRECTION </s> -0.3010
-0.3010 THATS-ALL-THANK-YOU </s> -0.3010

\3-grams:
-0.3010 <s> GO-BACK-TO-THE-TABLES </s>
-0.3010 <s> I-NEED-SOME-BISCUIT-PLEASE </s>
-0.3010 <s> I-NEED-SOME-CAKE-PLEASE </s>
-0.3010 <s> I-NEED-SOME-CHIPS-PLEASE </s>
-0.3010 <s> I-NEED-SOME-COFFEE-PLEASE </s>
-0.3010 <s> I-NEED-SOME-COLA-PLEASE </s>
-0.3010 <s> I-NEED-SOME-MILK-PLEASE </s>
-0.3010 <s> I-NEED-SOME-NOODLES-PLEASE </s>
-0.3010 <s> I-NEED-SOME-ROLL-PAPER-PLEASE </s>
-0.3010 <s> I-NEED-SOME-SOAP-PLEASE </s>
-0.3010 <s> I-NEED-SOME-TOOTHPASTE-PLEASE </s>
-0.3010 <s> I-NEED-SOME-WATER-PLEASE </s>
-0.3010 <s> JACK </s>
-0.3010 <s> START-TO-DETECT-THE-BAR-DIRECTION </s>
-0.3010 <s> THATS-ALL-THANK-YOU </s>

\end\
